34 128
34 0.01816933 -0.011576556 0.14256065 -0.07890337 -0.020989237 -0.1682022 0.031480223 0.05319111 -0.06348565 0.0648954 0.28488502 -0.05697956 -0.061683837 -0.0722313 0.040838826 -0.10734116 0.06004469 0.12370072 -0.11747554 0.039991677 0.12892872 0.10207104 0.103298075 0.09180403 -0.13903637 0.10602698 -0.13211578 0.061084516 0.007485571 -0.078554146 -0.3210143 0.03120078 -0.013353942 -0.04303786 -0.060653765 0.0195287 0.24623196 0.08487534 0.19199389 -0.060340747 0.0019154609 0.15587144 -0.10187358 -0.09646268 0.021589417 0.0607864 -0.007753712 -0.13738726 0.017427066 0.094489716 0.08009219 0.06285799 0.21214354 0.10803355 0.13602029 0.07984707 0.12200114 -0.01837045 -0.08606216 0.0614807 0.12394044 -0.10774606 0.04291608 0.033060662 0.103567034 -0.08388151 0.077780515 0.062159244 -0.04077908 -0.14026576 0.122336425 -0.014510336 -0.09307505 -0.082107425 -0.04766614 -0.06387762 0.0054224445 -0.024259243 -0.05772635 0.23262613 0.066995606 -0.10179002 0.05533006 0.2184233 0.016513295 0.082733996 0.20145911 -0.12014547 0.118738405 0.14153719 -0.14107475 -0.045664843 -0.057000794 0.02755505 0.15900706 0.021196567 -0.27998063 -0.2416106 0.05053984 -0.12715095 -0.25375605 -0.04313848 0.13262565 0.0946537 0.0631767 -0.070939824 0.07744446 -0.11532638 0.004309683 -0.16665883 0.050914228 0.005115033 0.04386392 0.06507471 -0.036753364 -0.031389937 -0.011470922 0.1634493 0.08374865 0.15788478 -0.05108276 -0.08689745 0.033488534 0.014429223 -0.034670476 -0.19400036 -0.07243719 0.00652548
1 0.031954497 0.0051135207 0.15902318 -0.12069256 0.00020484613 -0.15066066 0.020108733 0.05179833 0.0036766434 0.06606419 0.26660466 -0.059372175 -0.02999246 -0.09049542 0.027172975 -0.09873106 0.02585117 0.118548 -0.104476124 0.043809853 0.13149351 0.0868066 0.09382852 0.07015613 -0.18455322 0.13954699 -0.11948123 0.04408614 0.043838933 -0.023058323 -0.31061304 0.03131878 -0.074542426 -0.021772198 -0.06998987 0.02063188 0.20810643 0.11454006 0.21806587 -0.09283055 0.011155399 0.173684 -0.11747725 -0.09118327 0.0509447 0.047121275 0.003921292 -0.15610489 -0.023805229 0.05960323 0.09111154 0.031991735 0.20476744 0.10890761 0.1278209 0.07355121 0.14408949 0.020655913 -0.0895773 0.006022415 0.09423121 -0.10996243 0.0332751 0.024814919 0.1299109 -0.107548594 0.053078204 0.040167104 -0.013566126 -0.13997106 0.09140497 -0.012791242 -0.1089523 -0.04786552 -0.08785324 -0.07468157 0.017505014 0.015219775 -0.04728577 0.2627674 0.041745834 -0.1165754 0.056009904 0.21016634 0.03345092 0.044766113 0.21454062 -0.1312102 0.15094697 0.13851456 -0.14846303 -0.06466959 -0.11052303 0.009476537 0.13843143 -0.04086187 -0.26025444 -0.22498415 0.03563538 -0.13087064 -0.2586266 -0.050706916 0.096522756 0.082860954 0.03776186 -0.060103238 0.03892478 -0.16158454 -0.0034695105 -0.12972388 0.057154126 -0.002733385 0.028778628 0.073006876 -0.07731419 -0.0033053246 -0.041873813 0.16195625 0.12072037 0.16486192 -0.0633861 -0.09510828 0.0368753 0.046414938 -0.06513495 -0.22010858 -0.08556385 -0.015675144
33 0.01571194 -0.014407181 0.12794341 -0.08758843 -0.009048842 -0.15973674 0.03192501 0.0473988 -0.060804106 0.07377095 0.27712366 -0.048293415 -0.060751572 -0.06991604 0.045394078 -0.097106926 0.05960434 0.12027454 -0.109263696 0.051703777 0.12646523 0.09796021 0.09331124 0.08624292 -0.13761193 0.09802017 -0.1327757 0.05343341 0.014645409 -0.07688595 -0.30713034 0.024249582 -0.014375143 -0.0358663 -0.061827935 0.02545354 0.23928322 0.08364296 0.19294621 -0.053407475 0.014805801 0.14721106 -0.08529777 -0.09771853 0.015137677 0.06614978 -0.0019922026 -0.14187492 0.017061502 0.08089961 0.085131146 0.06392526 0.2125991 0.09845344 0.13392018 0.08322244 0.11890402 -0.015771475 -0.07260233 0.049085952 0.1269065 -0.108957455 0.037043232 0.04221451 0.10413592 -0.08366031 0.08344152 0.06418746 -0.045937058 -0.13427174 0.118779615 -0.016444644 -0.08590962 -0.07047649 -0.049789853 -0.06596706 -0.005860658 -0.022808455 -0.050756507 0.23965393 0.07272066 -0.10559683 0.039802738 0.21426935 0.02416688 0.08277979 0.19695228 -0.1158362 0.12289449 0.13467722 -0.13626127 -0.047070842 -0.061366536 0.022524122 0.1490856 0.015589451 -0.27045858 -0.23529218 0.042729337 -0.12714143 -0.23786685 -0.036118012 0.12787646 0.08412172 0.056066904 -0.06000987 0.078642555 -0.11720383 0.008997061 -0.16108052 0.048994247 0.018752774 0.042614754 0.05065856 -0.03419477 -0.037890974 -0.017981514 0.16051686 0.08282744 0.14932518 -0.05684881 -0.07544563 0.022753278 0.021707192 -0.042530067 -0.18462422 -0.062067546 0.0046799784
3 0.022496287 -0.008869682 0.15056145 -0.096459694 -0.005339816 -0.15782261 0.015039375 0.043555744 -0.02872205 0.05991448 0.27355078 -0.062286194 -0.043441955 -0.09404017 0.03547073 -0.10622088 0.035789646 0.11802503 -0.11273041 0.04405842 0.12882672 0.09644102 0.0947966 0.08596607 -0.16943662 0.13219899 -0.12643462 0.05281848 0.018190123 -0.048030145 -0.3116772 0.022077346 -0.052280452 -0.024125142 -0.061799385 0.017495105 0.22234951 0.091607995 0.21219645 -0.06866171 0.008334923 0.16032094 -0.103879966 -0.08453049 0.027317425 0.04891646 0.011929048 -0.14725375 -0.0050080465 0.0600014 0.098151274 0.03465714 0.20860396 0.11348101 0.12449228 0.078229286 0.13386197 -0.004469785 -0.09622865 0.03951324 0.11267056 -0.11378334 0.044110723 0.029781869 0.1169265 -0.0985109 0.06895178 0.051778156 -0.018279113 -0.13934162 0.10748641 -0.02724999 -0.10958112 -0.06325782 -0.07218673 -0.07220938 0.0098777 -0.012392586 -0.044582408 0.25243512 0.052432004 -0.112056494 0.062369976 0.21639247 0.01810331 0.06857991 0.19790094 -0.1147934 0.13309212 0.13425842 -0.13717651 -0.04819395 -0.08634206 0.02480317 0.15414876 -0.023121333 -0.275292 -0.23210154 0.038212366 -0.1323146 -0.25427386 -0.05511562 0.11440153 0.091621265 0.044777844 -0.06540499 0.06253209 -0.1483818 0.005132957 -0.14953823 0.057147924 -0.0044441237 0.043956973 0.07047456 -0.05439567 -0.018849177 -0.037612613 0.157622 0.10297888 0.15089777 -0.066630125 -0.08806973 0.035287455 0.040842295 -0.055329945 -0.2161376 -0.07828952 -0.006834375
2 0.021731244 -0.011149339 0.14080691 -0.1135314 -0.008067067 -0.1483637 0.017931726 0.04035826 -0.025239432 0.059678443 0.26114574 -0.05640203 -0.052200988 -0.08902923 0.038167164 -0.10577137 0.036316887 0.11944 -0.09831948 0.03835244 0.12297929 0.080839574 0.09048285 0.08932974 -0.16700818 0.13389659 -0.11460719 0.039542306 0.038607154 -0.04649856 -0.30761275 0.022402227 -0.05919112 -0.02997154 -0.06628571 0.028202368 0.20803353 0.099231124 0.20537958 -0.08615891 0.015398694 0.16973223 -0.11427884 -0.08290922 0.047183778 0.038663875 0.0002666511 -0.15368253 -0.006973889 0.0614878 0.09853906 0.02642776 0.2118015 0.10653162 0.121298395 0.07972566 0.12771644 0.0019856128 -0.085002355 0.026405226 0.10675068 -0.10000345 0.035097066 0.034658927 0.108792536 -0.09431101 0.060207184 0.044655792 -0.013822261 -0.14015631 0.10642858 -0.026974369 -0.10358742 -0.057727076 -0.08194778 -0.058130387 0.0054202313 0.003969503 -0.036357462 0.25882384 0.04565282 -0.11549914 0.061850004 0.20852102 0.022328785 0.04289317 0.20390119 -0.12634033 0.14692515 0.12435141 -0.13728403 -0.055066206 -0.09209229 0.014717388 0.14887874 -0.025060594 -0.26390335 -0.21958078 0.035180423 -0.12765561 -0.24474525 -0.041594643 0.09540938 0.085995376 0.05562642 -0.05297443 0.054492753 -0.15582345 -0.00058676733 -0.13984913 0.062893815 -0.0026706252 0.036457065 0.0683851 -0.06518987 -0.020019306 -0.0340217 0.15325032 0.11529197 0.16658588 -0.05958913 -0.08433251 0.024467934 0.043772902 -0.061000578 -0.21768034 -0.08251612 -0.017184837
32 0.02920927 -0.015760105 0.14884599 -0.09643094 -0.0070913527 -0.15303111 0.015320003 0.041084576 -0.05271846 0.06349493 0.27626374 -0.06735972 -0.060762767 -0.077344924 0.038275443 -0.11462375 0.051665895 0.11161756 -0.12007251 0.037339464 0.12487269 0.093350746 0.101530254 0.09150364 -0.1549625 0.12111548 -0.13357046 0.05038404 0.008125525 -0.072893195 -0.31777066 0.034815773 -0.029038185 -0.03018507 -0.056587245 0.014311526 0.24061225 0.09965074 0.19641918 -0.056806047 0.013269085 0.14848833 -0.10682563 -0.08797933 0.022870334 0.052521978 0.009978296 -0.14778441 0.0025430485 0.08368306 0.0807192 0.058092132 0.21455826 0.110486016 0.13002391 0.08301153 0.13216197 -0.0117501 -0.08783071 0.05573585 0.12770335 -0.112207115 0.052536596 0.04404945 0.108398974 -0.08771026 0.07761884 0.050975084 -0.041769408 -0.14893533 0.115825556 -0.020731326 -0.09057339 -0.07438528 -0.056317545 -0.06523988 0.004583021 -0.017994916 -0.060665406 0.2352793 0.06304111 -0.1031108 0.054248273 0.20601152 0.012192724 0.08403656 0.19639374 -0.112686716 0.11765773 0.1441615 -0.15094323 -0.043402813 -0.06842006 0.020559048 0.14562349 0.007112613 -0.2800263 -0.23731665 0.039524898 -0.1314567 -0.24466491 -0.052954715 0.123115286 0.094814196 0.06143426 -0.07320645 0.06405204 -0.13101903 0.014464657 -0.15588123 0.04262009 0.008208526 0.054980967 0.056917045 -0.05319257 -0.022637751 -0.034404334 0.16208175 0.09282979 0.16642475 -0.049405504 -0.09248032 0.027979532 0.034572087 -0.04164645 -0.19593488 -0.07497358 0.011065845
4 0.025905214 -0.008772854 0.14389482 -0.10505201 0.0032165728 -0.14421621 0.015749078 0.04607776 -0.008111081 0.05533107 0.25526544 -0.069641106 -0.04710878 -0.08575846 0.028661687 -0.094880134 0.035486467 0.10951904 -0.099049374 0.051610228 0.13117607 0.085973725 0.08960582 0.07621672 -0.17630327 0.13314782 -0.116700925 0.043276086 0.028211966 -0.0409143 -0.29465082 0.020109732 -0.064808406 -0.017587166 -0.06282646 0.028890416 0.21318784 0.10251975 0.21118964 -0.08341991 0.0031230524 0.16172223 -0.101709165 -0.08867494 0.045400128 0.040782437 0.014573717 -0.14466718 -0.016730253 0.05834498 0.08166616 0.031279363 0.2054422 0.11413581 0.12841147 0.0692665 0.13600548 0.01187301 -0.08966728 0.014608507 0.09834041 -0.11177375 0.041917317 0.020495046 0.12143458 -0.08594637 0.05785203 0.045262933 -0.022960389 -0.1261377 0.10466889 -0.026476644 -0.10500123 -0.045885254 -0.075600505 -0.069142714 0.006914982 -0.0019206005 -0.042770807 0.251777 0.047076028 -0.11552395 0.05265194 0.20353806 0.02276144 0.048183106 0.20276442 -0.120817885 0.1387725 0.12762375 -0.13039675 -0.059911612 -0.09630787 0.011435204 0.14970854 -0.026151337 -0.26791677 -0.21723258 0.026146518 -0.12226224 -0.2506452 -0.04742346 0.09015823 0.08751839 0.05077818 -0.052290313 0.04498949 -0.15278356 -0.006932088 -0.14156376 0.046580546 -0.003436539 0.034006458 0.061641783 -0.05667939 -0.013021683 -0.031200029 0.15353355 0.107650355 0.14905344 -0.06106388 -0.08389218 0.028204499 0.04357294 -0.05106027 -0.20932363 -0.06598573 -0.000547646
24 0.023395186 -0.0043770615 0.14464468 -0.094726734 -0.01554441 -0.16685468 0.016846942 0.054985892 -0.053536627 0.061662413 0.2735297 -0.05332192 -0.056452442 -0.08162626 0.04552007 -0.10887986 0.053515974 0.12101313 -0.11378884 0.053096518 0.12569208 0.08706303 0.10137233 0.08439945 -0.14767195 0.11699939 -0.13318545 0.05165985 0.02295734 -0.07401039 -0.3205243 0.03943674 -0.028423417 -0.0391579 -0.052811515 0.02443988 0.23862596 0.1021738 0.1880881 -0.055902235 0.010779125 0.15679777 -0.09753287 -0.08687611 0.029686047 0.06359679 -0.0039061008 -0.1473417 0.009197514 0.088411175 0.08020512 0.063033655 0.22006658 0.114496544 0.13045566 0.0900596 0.119916454 -0.0012107708 -0.08018111 0.043836325 0.118596755 -0.10875749 0.04858432 0.038220324 0.10728977 -0.08150785 0.082471125 0.052516147 -0.040478975 -0.1472466 0.11041027 -0.029126938 -0.090923086 -0.07726715 -0.052944843 -0.061125115 -0.0028758505 -0.024905223 -0.054346964 0.23690648 0.06469468 -0.1097538 0.057731424 0.21250767 0.02358684 0.07473186 0.19586226 -0.11013195 0.124401614 0.1307253 -0.15049493 -0.046716932 -0.06068531 0.030590437 0.13889675 0.017868396 -0.26737067 -0.22703265 0.055868335 -0.138349 -0.25594062 -0.044450145 0.13061403 0.09289241 0.06040246 -0.06725337 0.077442296 -0.13339119 -0.0005829263 -0.16171943 0.04706846 0.014935383 0.04477706 0.053352427 -0.040087838 -0.03654724 -0.016607739 0.15276921 0.09415647 0.16432308 -0.05253156 -0.0893982 0.030463133 0.018959822 -0.04603359 -0.20051022 -0.06195783 -0.0015590219
6 0.04231074 0.007098116 0.1700447 -0.14007443 0.007768492 -0.14590982 0.008220882 0.05985581 0.030881153 0.07041353 0.26627377 -0.07404125 -0.024009008 -0.077405594 0.023102932 -0.102634124 0.011988158 0.11113047 -0.12919065 0.048582897 0.13860853 0.07493122 0.078866996 0.07587977 -0.2196902 0.14917447 -0.1298645 0.026853375 0.035835486 -0.006621827 -0.32725465 0.02654548 -0.085902356 -0.023002965 -0.055969473 0.03135392 0.18828864 0.12206068 0.2263552 -0.09555833 -0.016963257 0.18776347 -0.14532523 -0.086334415 0.06178456 0.033607475 0.006997466 -0.1458943 -0.035738952 0.07149956 0.07865159 0.04785418 0.2250418 0.0929233 0.12627965 0.08977869 0.1652961 0.052067146 -0.08989704 0.011860423 0.07370165 -0.10297243 0.020269776 0.029731357 0.15559232 -0.11046524 0.04867385 0.030618688 -0.012701382 -0.14526026 0.08906228 -0.009156477 -0.113790885 -0.061033066 -0.087128654 -0.09679868 0.026941668 0.03298973 -0.04628735 0.27896908 0.044519894 -0.14360753 0.07554548 0.2337181 0.024228685 0.028782498 0.22703427 -0.13979022 0.15888195 0.13734493 -0.14602657 -0.07056106 -0.13182172 0.009628438 0.1382364 -0.057472304 -0.28755963 -0.24197045 0.024692852 -0.15612699 -0.28145915 -0.07110279 0.07224241 0.09573165 0.03577403 -0.05744304 0.02613707 -0.1862694 -0.0039250148 -0.12295492 0.054155406 -0.008065841 0.03417966 0.08188207 -0.113277785 0.00045487488 -0.07026635 0.1690727 0.13864394 0.19217508 -0.06156177 -0.11426924 0.05025984 0.06446289 -0.07356598 -0.21428467 -0.08441211 -0.016744599
14 0.03122171 -0.00047032337 0.1339787 -0.10099194 -0.002318351 -0.1377969 0.018503847 0.04134315 -0.019109521 0.06093337 0.25202668 -0.06263131 -0.04705873 -0.07550422 0.0411015 -0.08928828 0.030317033 0.11363317 -0.10614776 0.052180134 0.1248073 0.09091837 0.08933694 0.08436785 -0.16820928 0.12814952 -0.11875101 0.03852805 0.024963968 -0.034356877 -0.30035248 0.023595527 -0.04552404 -0.026373317 -0.06825343 0.016333219 0.214651 0.102273025 0.20003304 -0.0771389 9.125115e-05 0.15779096 -0.09562143 -0.08816759 0.028439602 0.04302888 0.00027750214 -0.14393531 -0.01018789 0.0600066 0.09268376 0.03120726 0.20636652 0.10668488 0.11700065 0.08245649 0.13680239 0.003625397 -0.088773265 0.020124903 0.093045294 -0.1051435 0.031168254 0.02009461 0.11419859 -0.08997591 0.06430584 0.04054649 -0.026470184 -0.13059223 0.10153349 -0.01135731 -0.099198155 -0.046518397 -0.076918915 -0.060144633 0.0049502444 0.0041726246 -0.050781958 0.24463497 0.05291624 -0.10951853 0.048630387 0.19428048 0.01641405 0.048330795 0.19702889 -0.11658064 0.13128157 0.13207522 -0.13598605 -0.05380881 -0.09288033 0.008445076 0.14674348 -0.022672364 -0.26140678 -0.21115133 0.037030336 -0.13201891 -0.23839886 -0.053405125 0.10092534 0.08139534 0.043446347 -0.056427263 0.060685046 -0.1350933 -0.007810861 -0.14006405 0.05898905 0.0020531234 0.033226613 0.06551675 -0.05224479 -0.019037293 -0.040253587 0.1520595 0.10762068 0.15873814 -0.05318902 -0.090496086 0.030425098 0.03785266 -0.047257114 -0.2069413 -0.07918148 -0.0051602256
30 0.014987842 -0.0037267634 0.13813852 -0.08325925 -0.01546571 -0.15737845 0.029538758 0.044571087 -0.05043864 0.067962155 0.27192107 -0.059152145 -0.047523748 -0.083051614 0.045187872 -0.10252918 0.059240572 0.123915754 -0.10441113 0.05231802 0.115115814 0.10157948 0.08776347 0.08500202 -0.15436623 0.10779961 -0.13374439 0.044731814 0.014116777 -0.06714656 -0.31403103 0.035651866 -0.036900103 -0.039340608 -0.05239648 0.028307905 0.23636018 0.0970265 0.1936629 -0.06688964 0.0125349555 0.1556017 -0.09208379 -0.085381195 0.032576345 0.06415116 -0.009027859 -0.1483668 0.007569254 0.08819434 0.089052975 0.06045616 0.21979435 0.101108015 0.13249943 0.07854447 0.11428375 0.0034648473 -0.081397034 0.04333903 0.114816576 -0.10864228 0.045486156 0.0398452 0.10808176 -0.0933134 0.06896815 0.052124426 -0.030680254 -0.14324391 0.11220518 -0.018361213 -0.098468095 -0.067709476 -0.057020694 -0.06422972 0.0046783467 -0.016668687 -0.055767726 0.24710579 0.067162715 -0.101777926 0.05496639 0.21658818 0.028039046 0.07225906 0.20465487 -0.113629475 0.12890685 0.1324669 -0.1431023 -0.051354136 -0.07407811 0.026925305 0.15283415 0.015346939 -0.26941597 -0.22597438 0.04823267 -0.1352681 -0.24482647 -0.052074805 0.12620847 0.092770405 0.055859923 -0.061331652 0.07508041 -0.119846866 0.0036882923 -0.15873395 0.05689431 0.01518733 0.046455532 0.060559526 -0.052614227 -0.03486406 -0.015934082 0.1537427 0.08720578 0.16731541 -0.047473725 -0.07921438 0.029452391 0.019345721 -0.036586132 -0.19966182 -0.06251723 0.00376019
7 0.055025637 -0.004257768 0.17549121 -0.14280236 -0.0038948483 -0.15504937 0.0058957175 0.06473467 0.030792024 0.06102608 0.2612694 -0.079543486 -0.01881765 -0.06827306 0.02758655 -0.103193246 0.008050925 0.11269613 -0.122209474 0.04000564 0.14858496 0.07627854 0.07226702 0.0741199 -0.20950176 0.14080238 -0.12949036 0.019838154 0.04805318 -0.003458602 -0.3258243 0.032280028 -0.07236477 -0.021949848 -0.053637773 0.032015998 0.19684249 0.1280955 0.21661341 -0.09544508 -0.010433822 0.18395217 -0.13350032 -0.07580765 0.061066657 0.029800056 0.00076529244 -0.15532163 -0.024112161 0.06848086 0.07389706 0.044970665 0.2115955 0.09359436 0.1292776 0.08925371 0.16095397 0.050582338 -0.09557832 0.003722716 0.08059224 -0.10744211 0.019214652 0.021080581 0.15525544 -0.11217516 0.04145176 0.02280101 -0.005531694 -0.14774059 0.09329959 -0.007925253 -0.12511678 -0.056433372 -0.08434336 -0.097287826 0.02166554 0.02759007 -0.041620255 0.27308995 0.04082058 -0.14279768 0.0813433 0.22791462 0.031869944 0.037722874 0.21935026 -0.14454325 0.15610142 0.14422701 -0.15376534 -0.056681253 -0.13185193 0.01929104 0.14078626 -0.042470504 -0.28365487 -0.23557533 0.018999573 -0.14521265 -0.27344826 -0.057726894 0.07294933 0.08191847 0.02828073 -0.052350104 0.023046028 -0.18048619 -0.009510489 -0.117611766 0.05438165 -0.0057233716 0.031625006 0.08443285 -0.10973252 0.0031221749 -0.068035915 0.1664 0.1322907 0.18950848 -0.058376115 -0.11825629 0.037499014 0.057826847 -0.06847362 -0.20839342 -0.088253185 -0.0054186434
28 0.030476078 -0.013087458 0.13032357 -0.084866 -0.00049622694 -0.1571496 0.01625493 0.053583637 -0.035474617 0.07008255 0.25897506 -0.06735389 -0.04593545 -0.087660275 0.038056217 -0.10509053 0.055900954 0.12215682 -0.11100417 0.04861043 0.12820485 0.09079552 0.100458376 0.090566315 -0.15039292 0.11332645 -0.12591541 0.04636759 0.026708115 -0.06435082 -0.30784243 0.036607794 -0.032283373 -0.02641434 -0.069683045 0.020462153 0.22972196 0.093371436 0.20150927 -0.059078112 0.008986164 0.15040277 -0.09898686 -0.091808185 0.021445427 0.05302778 -0.001799143 -0.1385058 -0.0016267824 0.08177483 0.07604755 0.045167867 0.21655212 0.114031345 0.121235415 0.08236964 0.11909932 -0.009279123 -0.08778753 0.04573856 0.117343284 -0.09701545 0.046805236 0.038446505 0.11258973 -0.096501514 0.07239627 0.047570284 -0.026789865 -0.13583821 0.1060917 -0.012439761 -0.092816055 -0.06362764 -0.06428345 -0.071832545 -0.003321086 -0.0033813678 -0.059201878 0.24883884 0.05058086 -0.106553555 0.049471144 0.19878903 0.027613627 0.07460626 0.19850965 -0.111966975 0.12519756 0.1388269 -0.1351613 -0.057396527 -0.07730361 0.0208122 0.14445329 -0.003598582 -0.26327237 -0.2308986 0.04253563 -0.124934494 -0.23908916 -0.05167357 0.10786505 0.081252396 0.051301897 -0.06989782 0.05824416 -0.12614541 0.00996621 -0.1443739 0.044020914 0.0033670762 0.049434103 0.0650004 -0.05597687 -0.032055177 -0.028647177 0.1562683 0.096218444 0.15961163 -0.05945427 -0.09514092 0.024687659 0.029946974 -0.04097223 -0.19463152 -0.06682573 0.0042784177
8 0.027904563 -0.0001695588 0.13615276 -0.10035809 0.0036263699 -0.14028437 0.024726683 0.05241982 -0.013790463 0.059612814 0.2566555 -0.0702616 -0.03422662 -0.08808135 0.04110715 -0.100340314 0.03465531 0.10559443 -0.1134282 0.03981088 0.11987088 0.08728796 0.08275441 0.07501803 -0.1751387 0.1239876 -0.11277927 0.04560115 0.036532663 -0.031925157 -0.3056885 0.030691447 -0.06363033 -0.027340688 -0.070522405 0.025695348 0.2105415 0.107227765 0.20550281 -0.084371224 0.012678452 0.15499881 -0.09865883 -0.08311223 0.03542821 0.040850263 0.0017271136 -0.15123776 -0.004221018 0.060726687 0.09238849 0.029915186 0.20802262 0.10447047 0.12715405 0.06988449 0.14043882 0.007551252 -0.09124022 0.017588293 0.09493562 -0.10807594 0.033116844 0.020854091 0.11893172 -0.094888166 0.0580053 0.04488144 -0.028453156 -0.1359519 0.10532897 -0.011597642 -0.11074713 -0.045568243 -0.06998866 -0.07275136 0.015088647 -0.006782596 -0.039024945 0.2542635 0.052365337 -0.11764232 0.05179836 0.20364738 0.02468277 0.05358049 0.20615627 -0.112472385 0.14472277 0.12564744 -0.12963587 -0.056233324 -0.08860541 0.01730827 0.14144373 -0.020455617 -0.2662133 -0.22292969 0.025286837 -0.12821989 -0.24022774 -0.049417064 0.09871935 0.08905186 0.05240509 -0.06369192 0.053540926 -0.15409619 0.0013359631 -0.12897885 0.059970744 0.005507981 0.04173683 0.07237777 -0.057825945 -0.00854488 -0.04031691 0.1605485 0.11207081 0.15657441 -0.05134846 -0.085025296 0.040105946 0.044510126 -0.045978036 -0.20600663 -0.06794732 -0.0041657193
9 0.029917203 -0.009446592 0.14630139 -0.093286164 -0.0071246633 -0.15153511 0.022915045 0.04131657 -0.021087978 0.055236872 0.25627303 -0.058060583 -0.04078827 -0.08386242 0.03986995 -0.09250817 0.036289085 0.10972204 -0.11072284 0.042058088 0.1254379 0.09738794 0.0954274 0.08234722 -0.15845886 0.12620108 -0.11414061 0.051661808 0.028333116 -0.056131702 -0.306726 0.022350123 -0.038740214 -0.030540582 -0.067757174 0.028634729 0.2235959 0.09381341 0.20469742 -0.0707589 0.0035482503 0.15457964 -0.10198829 -0.08942358 0.035317473 0.054068077 0.0088867815 -0.15071571 -0.0045265867 0.067310736 0.08943028 0.050952896 0.20431228 0.107052915 0.11959788 0.07857153 0.13526607 0.0026441969 -0.08918676 0.028025491 0.10315722 -0.10557955 0.042598624 0.038378 0.111683704 -0.0881739 0.07257526 0.048090488 -0.027245475 -0.12817913 0.113849595 -0.013135533 -0.1035429 -0.05224631 -0.060167655 -0.062165033 0.0035928038 -0.0056539704 -0.04236207 0.2405599 0.0615773 -0.1083202 0.06066932 0.20543033 0.020168329 0.06706209 0.19069298 -0.12412178 0.12538141 0.12933224 -0.13937674 -0.04627531 -0.07213339 0.01963569 0.14488284 -0.006679701 -0.26618 -0.23057486 0.043176513 -0.1330168 -0.24216136 -0.04140077 0.10953401 0.0904746 0.05183348 -0.06274524 0.061703973 -0.13815147 0.005152003 -0.13937888 0.0525156 0.008246122 0.032542862 0.07014731 -0.049175903 -0.025064664 -0.028348355 0.14958702 0.100558184 0.15915234 -0.050049957 -0.08659242 0.032696296 0.03650261 -0.041710977 -0.20566091 -0.07589739 -0.0054534283
11 0.04153398 0.0066443 0.15905316 -0.133326 -0.006520226 -0.14555685 0.011308254 0.04907536 0.01801867 0.07125988 0.260109 -0.07958477 -0.026471613 -0.07969652 0.022132399 -0.09455741 0.01354856 0.10829684 -0.122799076 0.039513122 0.14238685 0.090729296 0.08700711 0.08475473 -0.20560317 0.1449241 -0.1284208 0.023498455 0.042754117 -0.014114319 -0.33380267 0.023278277 -0.084441565 -0.028250212 -0.058735017 0.035241928 0.20458524 0.12226587 0.2277804 -0.0942195 -0.006193803 0.17267781 -0.13125919 -0.084402 0.05476676 0.045275185 -0.002203477 -0.1561809 -0.033396542 0.061863437 0.077531554 0.041043155 0.22205174 0.09820504 0.12456115 0.08456013 0.15938014 0.04307121 -0.09725751 0.006020058 0.08097669 -0.107526444 0.028450442 0.028430365 0.15068011 -0.11295974 0.047419116 0.027491944 -0.015418466 -0.154533 0.09500299 -0.011153849 -0.12563191 -0.048878133 -0.09425931 -0.09425761 0.009727623 0.025317691 -0.042421877 0.27865016 0.04829847 -0.13299419 0.070203304 0.23368108 0.030352198 0.0414548 0.2173744 -0.13656768 0.1617481 0.1369291 -0.14663711 -0.06425411 -0.11629289 0.019262392 0.14514367 -0.048198193 -0.28437233 -0.22867177 0.021356193 -0.14620061 -0.26951814 -0.0589726 0.077018596 0.09750664 0.035522427 -0.06347268 0.03840469 -0.17488581 -0.009636494 -0.13206704 0.053930104 -0.013861038 0.03517497 0.08056752 -0.0993062 0.002102912 -0.054875948 0.17550178 0.13172787 0.18260668 -0.057067037 -0.10970913 0.03322241 0.06525526 -0.069864884 -0.2273032 -0.08890943 -0.0152904205
5 0.045630418 0.008011251 0.16110186 -0.12852521 0.0010414051 -0.14278924 0.007905565 0.059896972 0.016541561 0.058278807 0.23927814 -0.075826794 -0.02947819 -0.065677226 0.034626283 -0.102280475 0.010062052 0.10964848 -0.11785405 0.038014237 0.13781878 0.07426274 0.08295727 0.07422324 -0.20120026 0.13692121 -0.113646664 0.036934666 0.03708265 -0.011516395 -0.31355545 0.023308622 -0.07664033 -0.021909405 -0.060474 0.022654783 0.18278404 0.12199877 0.21185157 -0.08994322 -0.010693097 0.17597567 -0.13129038 -0.074179225 0.052679554 0.044602867 0.009669782 -0.14425184 -0.026045548 0.061779454 0.06535975 0.037384853 0.21055654 0.10035004 0.13026477 0.086920656 0.1417859 0.043333773 -0.093505315 0.009247559 0.08034662 -0.09476364 0.028687887 0.03127068 0.14664719 -0.1046808 0.03942282 0.024906162 -0.009617534 -0.14543141 0.0886342 -0.0056036417 -0.112615086 -0.059790395 -0.08379862 -0.080813155 0.016884366 0.025241941 -0.05016736 0.25819758 0.050172966 -0.12533365 0.0723424 0.20967892 0.029544756 0.028383395 0.21041618 -0.1373407 0.14535159 0.12268615 -0.14238895 -0.065962836 -0.117215335 0.015445035 0.13574655 -0.042614393 -0.27275229 -0.22542344 0.025236648 -0.14219409 -0.26234114 -0.060759783 0.08423127 0.092000954 0.025301617 -0.05407547 0.027940858 -0.17069975 -0.0031906809 -0.120601416 0.043698605 -0.012190661 0.030625837 0.08021034 -0.10098432 0.008119172 -0.055822328 0.16073164 0.1330769 0.17631629 -0.059161816 -0.1000485 0.041875504 0.06196726 -0.06402561 -0.21118505 -0.07736541 -0.01535819
25 0.027286338 -0.003522908 0.14998719 -0.08799452 -0.014677987 -0.16805802 0.027325245 0.053685777 -0.05036133 0.06770271 0.2822838 -0.06550589 -0.05739539 -0.07774803 0.053866033 -0.11557264 0.052698903 0.11951242 -0.12126572 0.045170296 0.124631375 0.10557441 0.094220825 0.09370704 -0.15945248 0.12509157 -0.12811173 0.061013278 0.018730825 -0.07098254 -0.3238063 0.03254521 -0.0365317 -0.041043404 -0.071071275 0.014013768 0.2443058 0.10587567 0.21248809 -0.063086435 0.0038218547 0.1627734 -0.0977952 -0.08987668 0.031331655 0.0640694 -0.0062866295 -0.13898388 0.010367137 0.092207804 0.07530631 0.062372774 0.22940654 0.112389795 0.12846103 0.08919499 0.12387079 -0.007084868 -0.0842362 0.052325767 0.12850426 -0.113757886 0.03640821 0.044859525 0.12402903 -0.09684567 0.06548776 0.047926884 -0.03824128 -0.14920421 0.115830645 -0.01880284 -0.098550834 -0.07602806 -0.05496001 -0.07157731 -0.004904191 -0.004448945 -0.05593873 0.26013643 0.058351617 -0.11770218 0.05375609 0.21537064 0.013282488 0.073485844 0.20944765 -0.11570679 0.1348605 0.1424809 -0.15340929 -0.053083155 -0.07968676 0.028146422 0.143141 0.004452732 -0.28006992 -0.2424369 0.03831368 -0.13099153 -0.26428604 -0.053777132 0.12533222 0.09991372 0.04710477 -0.065722786 0.07558352 -0.1402842 0.0018361266 -0.15179354 0.055081338 0.009168316 0.052209947 0.0649876 -0.05370711 -0.029336927 -0.037233826 0.16567998 0.10062857 0.1588499 -0.059724607 -0.092953116 0.032395553 0.036107674 -0.048720792 -0.21250989 -0.06300541 -0.0047835098
26 0.015913123 -0.009416623 0.13034374 -0.087978706 -0.007887125 -0.15908892 0.016766235 0.048790883 -0.046406627 0.06810192 0.2756216 -0.054722894 -0.042992827 -0.08599982 0.051641785 -0.10585796 0.060014226 0.11889444 -0.10836866 0.036657933 0.11405162 0.10287366 0.09271068 0.08942065 -0.14372459 0.11336013 -0.11718471 0.050190475 0.009034172 -0.07196801 -0.31005102 0.02368557 -0.023463635 -0.03043457 -0.06999638 0.027314449 0.23910287 0.10045226 0.2007929 -0.070370995 0.008981935 0.14339475 -0.099985786 -0.08864848 0.024654709 0.058840558 0.0018640031 -0.13931881 0.0115024485 0.08862671 0.07511593 0.062326174 0.21830082 0.11638192 0.13036591 0.07832423 0.11868846 -0.0056829057 -0.08509338 0.054236516 0.1179792 -0.10209708 0.0456529 0.028489564 0.1172372 -0.08143888 0.070159085 0.052586168 -0.040646657 -0.14551596 0.11829308 -0.020696191 -0.08694359 -0.06713498 -0.058254886 -0.06308571 -0.0025191219 -0.0154194785 -0.05420971 0.24447508 0.05960593 -0.1049146 0.04390504 0.2152016 0.013090364 0.08085744 0.19911654 -0.120310724 0.117704116 0.12728804 -0.14649881 -0.042334825 -0.060645238 0.026040863 0.14406978 0.014715777 -0.27104387 -0.22950506 0.04689937 -0.1352052 -0.25263122 -0.05772066 0.12747273 0.093943104 0.048494298 -0.07350624 0.068463296 -0.123017356 0.0046303836 -0.14970432 0.045461982 0.013431254 0.047056433 0.06894357 -0.056903347 -0.03363517 -0.034171414 0.1548997 0.08523084 0.16150206 -0.05976037 -0.092986174 0.034258112 0.019415805 -0.041031323 -0.20315802 -0.057888042 0.009070498
29 0.024567861 -0.0045918864 0.14242688 -0.09680062 -0.0002200056 -0.16476718 0.028900761 0.050492432 -0.044699002 0.060972765 0.27793795 -0.062368248 -0.043218162 -0.0845838 0.049690858 -0.10351188 0.056802865 0.11381564 -0.10420854 0.05194205 0.12425602 0.09445554 0.09853387 0.09159444 -0.1430212 0.123428315 -0.11793311 0.05704515 0.027384862 -0.062934846 -0.3082338 0.030918453 -0.03253044 -0.030882768 -0.07019616 0.013048364 0.22758432 0.1029102 0.1938294 -0.07064 0.01414135 0.15336607 -0.09544202 -0.086210236 0.030554594 0.0596078 0.00067157083 -0.1424585 0.013468642 0.08058694 0.078853555 0.05688687 0.21486472 0.11141779 0.12350372 0.08251165 0.12804215 -1.0150903e-05 -0.08263686 0.035368692 0.115968384 -0.10613225 0.044916756 0.027426258 0.11781267 -0.09337229 0.07616012 0.04361401 -0.025881879 -0.13203533 0.1116627 -0.022796834 -0.09394138 -0.06610805 -0.06407223 -0.05955159 0.0036997648 -0.009614186 -0.05856859 0.24811935 0.058529377 -0.106518395 0.04373926 0.21033712 0.02610309 0.07712514 0.19042726 -0.12165719 0.120145194 0.1326877 -0.14864352 -0.05597146 -0.074019164 0.023188256 0.13605519 -0.0006409477 -0.2646249 -0.2207137 0.044627585 -0.12872261 -0.24947248 -0.05308957 0.11655696 0.09402234 0.057450164 -0.06491422 0.06727178 -0.13717303 0.0038264394 -0.15310422 0.055418048 0.008319148 0.039812043 0.05280005 -0.04864956 -0.033530634 -0.02931521 0.15046604 0.09179231 0.15307848 -0.061798792 -0.08721983 0.030822434 0.025361704 -0.050611828 -0.20126219 -0.07494946 -0.00049552636
20 0.031661574 -0.00746472 0.14393511 -0.0962304 0.0013489735 -0.14089943 0.027438454 0.03632477 -0.033099424 0.05549584 0.24959645 -0.068115346 -0.053966735 -0.08275624 0.038584765 -0.10135837 0.032079197 0.11732708 -0.105265096 0.048898052 0.13029763 0.094297715 0.08906402 0.08634969 -0.16880177 0.123932995 -0.11707599 0.05199674 0.021570964 -0.04477953 -0.30538464 0.02448975 -0.041146375 -0.032220613 -0.06360268 0.012817448 0.20589064 0.10496599 0.193188 -0.068706654 0.0012788838 0.15551732 -0.10968432 -0.07855916 0.03879991 0.051044937 0.011141778 -0.14330837 -0.014270499 0.07568206 0.08180794 0.04665543 0.21231422 0.102807015 0.114898115 0.07773133 0.13431796 0.0003485786 -0.084262006 0.024269689 0.110597424 -0.106348425 0.044543844 0.025192054 0.10619919 -0.0994656 0.058489446 0.047455087 -0.025093282 -0.12838186 0.10708984 -0.0154124405 -0.09629513 -0.050428677 -0.07123061 -0.06027278 -0.0020675522 -0.0025272057 -0.047210664 0.2451969 0.060354367 -0.112915754 0.05181241 0.20377597 0.020150993 0.054622367 0.20248075 -0.12279303 0.13897432 0.12890947 -0.13455646 -0.049339656 -0.08350433 0.018817352 0.1400626 -0.01044444 -0.26176703 -0.22221415 0.027211135 -0.13666883 -0.24279188 -0.05393767 0.10286022 0.083206974 0.04075212 -0.05858112 0.061822727 -0.1408687 -0.0054284395 -0.13821937 0.052111447 -0.0043606106 0.03768935 0.06424232 -0.061406434 -0.028276838 -0.025473522 0.15690961 0.10108583 0.16341059 -0.055977993 -0.08204575 0.028676411 0.042898737 -0.050789185 -0.20710947 -0.07713066 0.0025399358
31 0.02443785 -0.0059670215 0.1445971 -0.10178371 -0.008141115 -0.15370664 0.016900806 0.036657397 -0.028623568 0.06419186 0.26283222 -0.05636718 -0.046346176 -0.07463441 0.03635902 -0.095618926 0.04898286 0.11462176 -0.09910069 0.039453078 0.12738127 0.0932907 0.09430606 0.07442002 -0.15756015 0.1205897 -0.12488417 0.040693905 0.029560255 -0.05732368 -0.30366087 0.033166345 -0.047950774 -0.023717096 -0.060651537 0.025113614 0.21217157 0.090238184 0.18674882 -0.06965806 0.0037706306 0.15160842 -0.0936644 -0.09244384 0.02803641 0.04559814 -0.0030113796 -0.1501387 -0.0035082542 0.07854984 0.09158484 0.040014498 0.2001709 0.10141867 0.113645285 0.07410759 0.12037202 0.0050288606 -0.0890946 0.0335143 0.108452454 -0.09959525 0.03685701 0.024370838 0.11445341 -0.09460267 0.068698384 0.048672806 -0.020349953 -0.13331787 0.10419651 -0.013859224 -0.10196415 -0.06496977 -0.06139889 -0.06702998 0.000205454 -0.009160105 -0.05451068 0.24119395 0.056113183 -0.11035839 0.0534712 0.20782462 0.027572693 0.054393582 0.19080578 -0.12388423 0.12298202 0.12506545 -0.1365939 -0.057052087 -0.08155424 0.017404018 0.14733021 -0.0060986844 -0.2519965 -0.22628912 0.033339635 -0.12828006 -0.23331618 -0.04611685 0.10818195 0.086725526 0.051392663 -0.06678839 0.06291279 -0.13009664 0.005428308 -0.13939099 0.046131603 0.00037960257 0.045820583 0.06289162 -0.061326116 -0.019856945 -0.031814795 0.15736732 0.10315854 0.15174015 -0.052874878 -0.07963079 0.025729874 0.033084158 -0.04100029 -0.19235604 -0.0791215 0.001278062
17 0.05797391 5.7842248e-05 0.17275585 -0.13920125 0.009829474 -0.15000176 0.015599591 0.06829666 0.026654547 0.0583437 0.26166207 -0.07782344 -0.023389202 -0.07149184 0.036434755 -0.09813493 0.022826726 0.10131346 -0.1315325 0.04462969 0.14746952 0.078696355 0.073955335 0.07452404 -0.21961765 0.1555755 -0.12435024 0.019657472 0.042528268 -0.0053810966 -0.33397377 0.022077153 -0.07688006 -0.0139167225 -0.068876885 0.02724754 0.1908498 0.12386131 0.22634475 -0.09920116 -0.012253672 0.18288065 -0.1436051 -0.07410669 0.06072625 0.02831536 0.0017171121 -0.14772473 -0.038783208 0.059854437 0.06710321 0.03763182 0.22775151 0.1057509 0.13024634 0.07802041 0.16657756 0.048928544 -0.0950025 0.0009481356 0.07984922 -0.10644022 0.016274808 0.029608142 0.15141356 -0.11944268 0.036682397 0.033796027 -0.021220505 -0.15470624 0.097981155 -0.0099505745 -0.122328885 -0.063201316 -0.08895327 -0.08729141 0.013977053 0.021317102 -0.053029947 0.26882783 0.036024194 -0.14730467 0.083254784 0.23580724 0.022560105 0.026865264 0.2186829 -0.14316265 0.16554596 0.14344245 -0.15761869 -0.0678086 -0.13746852 0.01734476 0.13581023 -0.05223917 -0.2792856 -0.22759962 0.026888225 -0.15471868 -0.267313 -0.07415886 0.071258284 0.08307862 0.03122764 -0.05828519 0.02567179 -0.17687075 0.0053433916 -0.11777884 0.051502183 0.0009994775 0.03640063 0.077975444 -0.11207136 0.010406773 -0.07421844 0.16825303 0.14195895 0.18366405 -0.05791121 -0.121554375 0.047213975 0.07040913 -0.07972615 -0.22020572 -0.078440785 -0.008537242
27 0.021582797 -0.007462541 0.12564443 -0.07919714 -0.01257784 -0.15594971 0.025561487 0.049184628 -0.049442254 0.06806717 0.25835654 -0.06016204 -0.044263925 -0.0668383 0.048362363 -0.09751863 0.05069148 0.1061554 -0.10228291 0.051832806 0.11670779 0.088138066 0.08616656 0.082842104 -0.15037414 0.1116509 -0.120737724 0.05656081 0.011062895 -0.06624989 -0.30259052 0.022980718 -0.025621634 -0.02982494 -0.05534071 0.023713613 0.21211576 0.08871815 0.17893052 -0.057728063 0.0049481587 0.15454917 -0.09765921 -0.07978594 0.029764064 0.055572882 -0.0019641072 -0.128765 0.009032714 0.08662873 0.080256954 0.058911543 0.20909603 0.094134 0.11855787 0.078718044 0.117028944 -0.00010923651 -0.07767677 0.05023356 0.10723359 -0.10095837 0.045081608 0.037195392 0.10972327 -0.080774315 0.0665245 0.043432463 -0.03189067 -0.14264569 0.10570169 -0.026183246 -0.08949329 -0.07507846 -0.047212098 -0.068542875 0.00976597 -0.022977125 -0.05556241 0.23151954 0.05762298 -0.10203279 0.047335017 0.20200653 0.01645092 0.061852816 0.1943236 -0.111624196 0.124755114 0.122699834 -0.13323726 -0.05450561 -0.058945205 0.029143633 0.13363759 0.01470289 -0.2610533 -0.22674783 0.045435615 -0.12349915 -0.2427546 -0.053573456 0.12101387 0.08664309 0.051242337 -0.05902785 0.062022682 -0.11822852 0.005665398 -0.13889976 0.04357665 0.011533855 0.04749764 0.053032584 -0.053998787 -0.021603385 -0.01638492 0.14598343 0.09321418 0.15277381 -0.055718724 -0.084740385 0.024334544 0.030044494 -0.04069203 -0.19498397 -0.06375327 -0.0021271803
18 0.03355351 -0.003075678 0.14676218 -0.103107005 -0.0053412886 -0.13324808 0.021463899 0.03948894 -0.019537859 0.056274097 0.24405429 -0.061462935 -0.051142927 -0.08796223 0.037973702 -0.09646126 0.03848778 0.1087526 -0.104127154 0.046694532 0.1294611 0.08819124 0.09525939 0.083238415 -0.1772996 0.12613006 -0.12281989 0.036829457 0.027334211 -0.04559706 -0.28929186 0.024994357 -0.05955853 -0.031079905 -0.072665945 0.013712038 0.21220297 0.09901923 0.2045198 -0.082206875 0.014230511 0.16233897 -0.10353777 -0.08629528 0.038924698 0.041804276 0.012358517 -0.14008336 -0.012836421 0.063829936 0.08913502 0.028544357 0.21314657 0.10444899 0.114294656 0.08366071 0.13193022 0.017674912 -0.08724393 0.026056338 0.09967202 -0.106760345 0.030622592 0.03300324 0.119082496 -0.1000001 0.056721926 0.037765868 -0.019752895 -0.13899319 0.106385626 -0.016925873 -0.09616336 -0.045043815 -0.07907616 -0.06400099 0.0064887926 -0.005392562 -0.0365957 0.25671396 0.059461806 -0.115669094 0.04661047 0.2052175 0.01595679 0.05660228 0.20152849 -0.114767484 0.14336532 0.12650324 -0.13615833 -0.054322135 -0.08409899 0.008661775 0.14011121 -0.02668098 -0.25572413 -0.2103681 0.023933027 -0.12485429 -0.24583523 -0.047810283 0.10311777 0.08926555 0.04200096 -0.059962515 0.05738696 -0.14013043 0.0022093148 -0.13700391 0.052418172 -0.008628784 0.03222899 0.070046976 -0.06867351 -0.019983692 -0.029686505 0.16030994 0.114861965 0.15734898 -0.06482753 -0.0930099 0.031899028 0.03517036 -0.059707776 -0.20515099 -0.07658388 -0.015802119
16 0.026548384 -0.015785793 0.12884708 -0.09036712 -0.008460299 -0.15101035 0.017990163 0.05133095 -0.035370693 0.057281323 0.2675582 -0.04820383 -0.05470061 -0.07395203 0.0426492 -0.09213137 0.04476954 0.10713218 -0.10150494 0.036462553 0.11390624 0.08785436 0.093493976 0.077618025 -0.14101258 0.107116304 -0.11990883 0.0535377 0.019030344 -0.054894317 -0.29659584 0.022705277 -0.021008147 -0.036499925 -0.051688414 0.018250436 0.21256958 0.08439026 0.18902738 -0.060822103 0.007358492 0.13915724 -0.10008783 -0.09104137 0.033882212 0.046848793 0.0040407106 -0.13796443 0.0058448524 0.085538864 0.07579772 0.048285604 0.20322298 0.10688611 0.1296671 0.07496906 0.11991273 0.0022820565 -0.083950885 0.04780793 0.10482249 -0.099858075 0.043920554 0.038606644 0.10228124 -0.08111927 0.07476692 0.05804712 -0.040428206 -0.12976594 0.11111899 -0.018857552 -0.08225833 -0.07001417 -0.054666735 -0.06939635 -0.0011296641 -0.014903383 -0.052375764 0.22492154 0.065003216 -0.10763468 0.04542055 0.20884258 0.028960736 0.07295909 0.18775861 -0.11273745 0.11812954 0.13299468 -0.1401608 -0.04508551 -0.061623033 0.021749832 0.14003189 0.009354058 -0.24831408 -0.2185666 0.05157156 -0.13117462 -0.23323172 -0.047981806 0.10923982 0.085244805 0.04595913 -0.06524599 0.06693542 -0.11508948 -0.00091981504 -0.15375443 0.045283653 0.0147322975 0.03396432 0.06688117 -0.04729005 -0.027138019 -0.023804754 0.1455193 0.09132041 0.15792945 -0.05661008 -0.08391181 0.029947592 0.029249663 -0.037278578 -0.19007632 -0.059946142 -0.0039540147
19 0.021425933 -0.0012007082 0.14242609 -0.09915439 -0.011278387 -0.15999761 0.021224733 0.051717732 -0.046322204 0.06841391 0.26879597 -0.060638428 -0.057632655 -0.077040724 0.038376678 -0.09713208 0.05568918 0.116559185 -0.109308004 0.047451206 0.11641636 0.08999623 0.08971876 0.09143701 -0.15653725 0.106865585 -0.12277532 0.05009451 0.013049976 -0.06486444 -0.30498195 0.02623833 -0.039855145 -0.0358782 -0.0600588 0.027809987 0.22253728 0.09335698 0.19059643 -0.066161506 0.008835306 0.15276255 -0.094151706 -0.08779488 0.021961913 0.05378659 0.0076289442 -0.1446768 -0.0004943385 0.077125385 0.08830804 0.052043416 0.21659862 0.09596202 0.13195772 0.07191136 0.12937711 0.001984103 -0.0800092 0.037106656 0.1175167 -0.09912612 0.035903584 0.027219482 0.1154429 -0.09140311 0.06111423 0.052065667 -0.036653664 -0.14391123 0.11711925 -0.020365456 -0.094958894 -0.07023495 -0.06036298 -0.07052934 -0.0014256514 -0.018521488 -0.057473518 0.24456535 0.065715715 -0.109968334 0.054309297 0.20184083 0.027638316 0.07459499 0.19525419 -0.121435575 0.12249868 0.13446797 -0.14031458 -0.045815594 -0.06249752 0.026767492 0.1394637 0.0083782645 -0.26546094 -0.2302971 0.047690786 -0.13684264 -0.24350919 -0.048919123 0.10728406 0.08640135 0.055972032 -0.06626903 0.058582645 -0.12203351 0.0009195936 -0.1544618 0.04974257 0.0075262175 0.048689924 0.06205776 -0.04493887 -0.034740772 -0.02079904 0.15807131 0.09440291 0.15483063 -0.052368507 -0.086398184 0.022529092 0.023263201 -0.043288272 -0.19605176 -0.06020557 -0.0010598872
21 0.026764331 -0.006973365 0.1405275 -0.097669035 -0.007782947 -0.1484158 0.022829164 0.043842394 -0.043898586 0.068205364 0.25273263 -0.052731205 -0.053349797 -0.06980656 0.045750577 -0.09741866 0.05001015 0.11156552 -0.09701408 0.05035603 0.11730312 0.08575268 0.08056076 0.08891103 -0.14779495 0.11020821 -0.121169776 0.053610265 0.025766179 -0.055986125 -0.29057238 0.033178683 -0.029574137 -0.026588313 -0.054326117 0.019775888 0.21674033 0.085959494 0.1812103 -0.05355426 -0.0016848849 0.14338736 -0.098057725 -0.08014577 0.034381095 0.046026148 0.0052302005 -0.1369955 -0.0035798731 0.073671624 0.07822965 0.046174422 0.19957297 0.0952476 0.12409997 0.084451415 0.116042085 0.0024312641 -0.080643065 0.039103206 0.101748854 -0.09876244 0.042304054 0.038621258 0.11010716 -0.0808029 0.07032864 0.043257575 -0.03170045 -0.1372045 0.11063565 -0.012799793 -0.09402826 -0.06379174 -0.050983 -0.062534116 0.002972029 -0.018995868 -0.040502027 0.22225055 0.054068916 -0.1078253 0.046225414 0.19781314 0.014352498 0.06686442 0.18301433 -0.115081675 0.12437212 0.12826502 -0.13147503 -0.04642899 -0.05869536 0.023176108 0.1427499 0.010383271 -0.2606099 -0.22437188 0.049574737 -0.123858795 -0.23618099 -0.04175899 0.10597919 0.07856776 0.042075913 -0.054113824 0.060633592 -0.12925355 -0.0015904484 -0.13928373 0.046424598 0.0017457909 0.039835773 0.05889294 -0.05050317 -0.029199831 -0.01958421 0.14884312 0.08729671 0.1534981 -0.04680565 -0.088876806 0.021674361 0.033142347 -0.05066234 -0.1869704 -0.0737796 0.0051988647
15 0.019564012 -0.012464407 0.13141176 -0.091299064 -0.0031693708 -0.13778484 0.020337477 0.046892103 -0.0315332 0.06092613 0.24587405 -0.054921106 -0.043954644 -0.06373936 0.034348957 -0.10271803 0.047024377 0.11664376 -0.107819006 0.04095499 0.112199105 0.08993685 0.092866436 0.07869764 -0.1413377 0.11287277 -0.11396807 0.03906113 0.021891559 -0.054740157 -0.29030976 0.03163188 -0.03351158 -0.022855433 -0.05483121 0.021028731 0.2056888 0.08260325 0.1738553 -0.057366688 -0.00016141549 0.14726123 -0.094045594 -0.08773068 0.026578942 0.045379356 -0.006951467 -0.13377443 0.009673808 0.06913772 0.07286828 0.055903174 0.20361295 0.10420448 0.11002949 0.0796614 0.1114279 0.0068418705 -0.07331116 0.035333943 0.1091607 -0.10374028 0.040519148 0.03625295 0.10999215 -0.079021536 0.061472803 0.049309414 -0.03404739 -0.13554023 0.10365055 -0.024427047 -0.089636624 -0.06275618 -0.04904795 -0.06933587 0.0017722327 -0.013130187 -0.05233562 0.2247678 0.059346005 -0.10596193 0.0497147 0.2036719 0.02020173 0.059784606 0.18993779 -0.11097444 0.118599825 0.13121635 -0.12554394 -0.043596555 -0.06681808 0.020015595 0.14104195 0.004571263 -0.25301424 -0.21805334 0.039026257 -0.12935051 -0.22782464 -0.052554063 0.10423147 0.08446917 0.04893261 -0.055607665 0.051751617 -0.12026126 0.0070901164 -0.1358601 0.053145014 0.007676915 0.04460646 0.06587271 -0.051456448 -0.024646306 -0.023790548 0.13946402 0.09433449 0.14595431 -0.052764386 -0.08324819 0.03415826 0.031209644 -0.044513892 -0.186614 -0.06773795 -0.0024141872
23 0.018095708 -0.011820726 0.13467687 -0.08581081 -0.008595765 -0.1435917 0.02198242 0.043147985 -0.04567175 0.06708447 0.2628597 -0.058434594 -0.043891307 -0.06422473 0.033406127 -0.09952119 0.03905002 0.11457839 -0.107519224 0.043787926 0.124677256 0.081330374 0.080557846 0.08255261 -0.15100464 0.100368954 -0.12819615 0.04721427 0.016932357 -0.057630204 -0.29545352 0.035971362 -0.022079492 -0.03693712 -0.047867738 0.013937388 0.21361032 0.09081808 0.1837596 -0.06277134 0.0056149727 0.14669703 -0.10373402 -0.08885532 0.021286944 0.054952275 -0.001338882 -0.14167844 0.009118777 0.07807236 0.080175474 0.05656789 0.19697268 0.10508576 0.11433113 0.07452386 0.11128569 -0.00047156872 -0.08513252 0.04919804 0.11261155 -0.10545617 0.043464795 0.039381586 0.09969061 -0.08038695 0.060957123 0.05701949 -0.028047787 -0.13346459 0.0982959 -0.018137205 -0.089746065 -0.06623707 -0.04686522 -0.06678669 -0.0038740353 -0.019997982 -0.0508256 0.2286168 0.058354016 -0.104697466 0.05813288 0.20146783 0.026188238 0.07079138 0.18100238 -0.11475876 0.1125167 0.12208041 -0.13697806 -0.0400849 -0.06751133 0.030208675 0.13650724 0.0005746832 -0.25075692 -0.2171985 0.04285504 -0.12807217 -0.23925526 -0.042943206 0.10453001 0.07621152 0.040888175 -0.053868588 0.06563986 -0.115771316 0.011904962 -0.1493778 0.051064916 0.010339845 0.046488114 0.057268113 -0.041296992 -0.03203779 -0.018747117 0.15350598 0.08836607 0.15598537 -0.045406844 -0.08177599 0.0342482 0.02892253 -0.044220876 -0.18001603 -0.06254392 -0.0026313018
10 0.02579725 -0.008631961 0.14370675 -0.10264056 -0.008066779 -0.15279533 0.024694024 0.04146114 -0.023385176 0.061065603 0.2704531 -0.056926467 -0.039846312 -0.085822694 0.035253685 -0.09694947 0.0414802 0.12009265 -0.111044146 0.047805212 0.12362442 0.089232996 0.09334065 0.08121363 -0.16095391 0.11282138 -0.11997651 0.051057756 0.021430703 -0.044241972 -0.30061415 0.023841025 -0.04255568 -0.025588863 -0.068207316 0.02440098 0.22437349 0.10087574 0.20361602 -0.06714017 0.0065449425 0.15005319 -0.09429654 -0.09465922 0.031056361 0.046868984 0.0069482825 -0.14977835 0.0015508205 0.07312243 0.08211283 0.037733708 0.20125404 0.10949928 0.11570436 0.08282248 0.12499151 -0.0061774035 -0.089220144 0.040049735 0.106118746 -0.10028268 0.031789742 0.023986747 0.10817276 -0.08982883 0.061830536 0.040789388 -0.035067096 -0.13485873 0.11270587 -0.026428252 -0.102228165 -0.058329735 -0.06256381 -0.07460312 0.0110097835 -0.014310988 -0.043913916 0.2525995 0.059517954 -0.10506979 0.058943465 0.21076936 0.017909404 0.068849795 0.19012754 -0.12273604 0.13540341 0.12520917 -0.14281647 -0.054606717 -0.07718064 0.023957765 0.14600325 -0.0049621877 -0.2654528 -0.22007129 0.033182383 -0.1298797 -0.25020406 -0.047439564 0.110814944 0.08967889 0.04678942 -0.059478994 0.06632928 -0.14163952 -0.00058333215 -0.14531411 0.04905242 0.012581664 0.045951687 0.07086679 -0.045703262 -0.031119402 -0.030418074 0.14754371 0.094702855 0.14949442 -0.05380247 -0.08696665 0.024203647 0.040722247 -0.048278615 -0.2004156 -0.07451526 -0.0059220395
13 0.026447374 0.004329908 0.14304535 -0.108820595 0.0034955987 -0.13744442 0.015385209 0.051579945 -0.011579575 0.06484326 0.24233261 -0.06967243 -0.041036375 -0.08397822 0.0324333 -0.0959533 0.03470491 0.112852484 -0.10519815 0.046255246 0.12175943 0.08565837 0.0831809 0.07365453 -0.17628522 0.12266348 -0.114183776 0.041482545 0.020915207 -0.0273948 -0.2948594 0.020824283 -0.06354682 -0.026957639 -0.06743118 0.014344501 0.2001668 0.09450757 0.19684048 -0.08606385 0.013286067 0.1565366 -0.11141558 -0.07750624 0.03229513 0.0406214 0.008806723 -0.14749876 -0.021370905 0.054037474 0.08964585 0.04215501 0.2041256 0.10364461 0.122411475 0.06999372 0.14114517 0.020910967 -0.08256613 0.026481006 0.08547429 -0.102110125 0.040721506 0.023731485 0.11399547 -0.09573479 0.051120672 0.036822166 -0.021501195 -0.12491688 0.09699639 -0.012982144 -0.10565844 -0.041555975 -0.079662696 -0.078117035 0.0068607843 -0.0029156453 -0.04741266 0.24612404 0.050887357 -0.110828035 0.058399092 0.1997148 0.024794022 0.04844345 0.20479727 -0.11211897 0.1347049 0.12665683 -0.13818246 -0.059040427 -0.09982685 0.0142436875 0.13444197 -0.030379971 -0.25588846 -0.21213649 0.020090036 -0.12525086 -0.23657875 -0.0476774 0.090617344 0.092604965 0.04996365 -0.056415487 0.04673759 -0.15426736 -0.005512214 -0.12955771 0.05535267 -0.0018068616 0.026990404 0.07273968 -0.0727493 -0.0034718881 -0.033982854 0.14530736 0.11029709 0.16073032 -0.062487908 -0.09332758 0.040870715 0.045077916 -0.04498697 -0.21124035 -0.07360406 -0.0015969719
22 0.028660083 -0.0047149006 0.13460399 -0.10827521 -0.007510834 -0.13026878 0.016559925 0.036314543 -0.00646064 0.055190466 0.24112836 -0.06360871 -0.039393026 -0.08274361 0.03354374 -0.09638262 0.0384477 0.11290388 -0.10221002 0.038084842 0.12574181 0.08426755 0.07842127 0.07378497 -0.17189465 0.12593214 -0.12104855 0.034659825 0.034308292 -0.038252056 -0.28500095 0.023614503 -0.060188185 -0.029455947 -0.062099993 0.025345668 0.19398482 0.094213106 0.19084033 -0.07094133 0.0028467982 0.15924275 -0.106031105 -0.08552962 0.036707945 0.041826677 0.008809172 -0.14622097 -0.019691318 0.05550135 0.08479587 0.031682797 0.20148127 0.10196852 0.11951443 0.07659302 0.12844245 0.014032091 -0.08849757 0.01612172 0.10067368 -0.10338261 0.024857324 0.029170955 0.12232393 -0.09408084 0.055311803 0.035301965 -0.023479244 -0.13741155 0.09171677 -0.023982821 -0.10531828 -0.04335705 -0.06581424 -0.06911922 0.0070689884 0.00861541 -0.04170061 0.23812217 0.051852636 -0.11058348 0.052203912 0.1948284 0.029186683 0.054136664 0.18790294 -0.122056276 0.13622063 0.12521298 -0.13902809 -0.04550056 -0.09539169 0.01883965 0.1444078 -0.02389518 -0.25114214 -0.21410255 0.019527039 -0.12590365 -0.23795801 -0.057576425 0.09748947 0.07752962 0.047077175 -0.059484873 0.04090252 -0.15100189 0.0037943057 -0.13401976 0.055444375 -0.0043678246 0.0426498 0.071391374 -0.057920046 -0.006953604 -0.043145258 0.14225504 0.101813376 0.15373966 -0.05167621 -0.0844709 0.028549837 0.046984978 -0.056179717 -0.20517024 -0.06880661 -0.015108162
12 0.030650774 -0.0068345917 0.14673501 -0.10748505 0.00049029436 -0.14380343 0.02405548 0.0415134 -0.0076119737 0.0605176 0.2511033 -0.06756167 -0.041858405 -0.083661295 0.03841621 -0.098301165 0.035049487 0.10622072 -0.09860985 0.037022896 0.12284199 0.08292023 0.07653705 0.08332081 -0.17153223 0.12963855 -0.11420375 0.043030508 0.030119007 -0.027170911 -0.2993329 0.030074203 -0.049806558 -0.023762029 -0.05834169 0.025153736 0.2019508 0.09705791 0.19946729 -0.07695585 0.008502999 0.16280298 -0.112322986 -0.07963642 0.031666268 0.040076323 -0.0011477205 -0.13766307 -0.014979147 0.060467474 0.086503044 0.02991334 0.20122957 0.09792266 0.11519458 0.06833008 0.12590276 0.021620361 -0.09064149 0.025174933 0.08969883 -0.101489775 0.03512133 0.0195764 0.11293166 -0.09904023 0.04610914 0.034302372 -0.022572415 -0.13025597 0.096145615 -0.022453172 -0.10371636 -0.05304654 -0.07704662 -0.07445499 0.006865488 -0.003520723 -0.049817886 0.23499313 0.051117484 -0.11768262 0.05293724 0.20406176 0.028117655 0.043552596 0.19960889 -0.12343858 0.13372931 0.12965775 -0.13527839 -0.046012618 -0.09180687 0.019400524 0.14091389 -0.031244494 -0.2585642 -0.21796592 0.027245153 -0.13146658 -0.23712546 -0.056546412 0.09186913 0.08325227 0.047703948 -0.063383535 0.043302104 -0.13994162 0.0065424666 -0.12951231 0.05123448 -0.006503242 0.035252713 0.060394756 -0.0729254 -0.00991769 -0.038624838 0.15300678 0.098895155 0.1557855 -0.054660015 -0.09261391 0.032199673 0.04768805 -0.057750925 -0.19892469 -0.068575226 -0.005551926
